digraph Tree {
node [shape=box, style="filled, rounded", color="black", fontname="helvetica"] ;
edge [fontname="helvetica"] ;
0 [label="petal length (cm) <= 4.75\ngini = 0.66\nsamples = 100\nvalue = [42, 50, 58]\nclass = virginica", fillcolor="#f5effd"] ;
1 [label="petal width (cm) <= 0.75\ngini = 0.5\nsamples = 59\nvalue = [42, 47, 0]\nclass = versicolor", fillcolor="#eafcf2"] ;
0 -> 1 [labeldistance=2.5, labelangle=45, headlabel="True"] ;
2 [label="gini = 0.0\nsamples = 27\nvalue = [42, 0, 0]\nclass = setosa", fillcolor="#e58139"] ;
1 -> 2 ;
3 [label="gini = 0.0\nsamples = 32\nvalue = [0, 47, 0]\nclass = versicolor", fillcolor="#39e581"] ;
1 -> 3 ;
4 [label="petal length (cm) <= 5.15\ngini = 0.09\nsamples = 41\nvalue = [0, 3, 58]\nclass = virginica", fillcolor="#8843e6"] ;
0 -> 4 [labeldistance=2.5, labelangle=-45, headlabel="False"] ;
5 [label="petal width (cm) <= 1.75\ngini = 0.23\nsamples = 15\nvalue = [0, 3, 20]\nclass = virginica", fillcolor="#9457e9"] ;
4 -> 5 ;
6 [label="sepal length (cm) <= 6.5\ngini = 0.5\nsamples = 5\nvalue = [0, 3, 3]\nclass = versicolor", fillcolor="#ffffff"] ;
5 -> 6 ;
7 [label="sepal width (cm) <= 2.45\ngini = 0.38\nsamples = 3\nvalue = [0, 1, 3]\nclass = virginica", fillcolor="#ab7bee"] ;
6 -> 7 ;
8 [label="gini = 0.0\nsamples = 1\nvalue = [0, 0, 2]\nclass = virginica", fillcolor="#8139e5"] ;
7 -> 8 ;
9 [label="sepal length (cm) <= 6.15\ngini = 0.5\nsamples = 2\nvalue = [0, 1, 1]\nclass = versicolor", fillcolor="#ffffff"] ;
7 -> 9 ;
10 [label="gini = 0.0\nsamples = 1\nvalue = [0, 1, 0]\nclass = versicolor", fillcolor="#39e581"] ;
9 -> 10 ;
11 [label="gini = 0.0\nsamples = 1\nvalue = [0, 0, 1]\nclass = virginica", fillcolor="#8139e5"] ;
9 -> 11 ;
12 [label="gini = 0.0\nsamples = 2\nvalue = [0, 2, 0]\nclass = versicolor", fillcolor="#39e581"] ;
6 -> 12 ;
13 [label="gini = 0.0\nsamples = 10\nvalue = [0, 0, 17]\nclass = virginica", fillcolor="#8139e5"] ;
5 -> 13 ;
14 [label="gini = 0.0\nsamples = 26\nvalue = [0, 0, 38]\nclass = virginica", fillcolor="#8139e5"] ;
4 -> 14 ;
}