digraph Tree {
node [shape=box, style="filled, rounded", color="black", fontname="helvetica"] ;
edge [fontname="helvetica"] ;
0 [label="sepal length (cm) <= 5.45\ngini = 0.66\nsamples = 100\nvalue = [47, 56, 47]\nclass = versicolor", fillcolor="#eefdf4"] ;
1 [label="sepal width (cm) <= 2.7\ngini = 0.25\nsamples = 34\nvalue = [41, 6, 1]\nclass = setosa", fillcolor="#e9965a"] ;
0 -> 1 [labeldistance=2.5, labelangle=45, headlabel="True"] ;
2 [label="sepal length (cm) <= 4.7\ngini = 0.5\nsamples = 6\nvalue = [1, 4, 1]\nclass = versicolor", fillcolor="#88efb3"] ;
1 -> 2 ;
3 [label="gini = 0.0\nsamples = 1\nvalue = [1, 0, 0]\nclass = setosa", fillcolor="#e58139"] ;
2 -> 3 ;
4 [label="petal length (cm) <= 4.0\ngini = 0.32\nsamples = 5\nvalue = [0, 4, 1]\nclass = versicolor", fillcolor="#6aeca0"] ;
2 -> 4 ;
5 [label="gini = 0.0\nsamples = 4\nvalue = [0, 4, 0]\nclass = versicolor", fillcolor="#39e581"] ;
4 -> 5 ;
6 [label="gini = 0.0\nsamples = 1\nvalue = [0, 0, 1]\nclass = virginica", fillcolor="#8139e5"] ;
4 -> 6 ;
7 [label="petal length (cm) <= 3.2\ngini = 0.09\nsamples = 28\nvalue = [40, 2, 0]\nclass = setosa", fillcolor="#e68743"] ;
1 -> 7 ;
8 [label="gini = 0.0\nsamples = 27\nvalue = [40, 0, 0]\nclass = setosa", fillcolor="#e58139"] ;
7 -> 8 ;
9 [label="gini = 0.0\nsamples = 1\nvalue = [0, 2, 0]\nclass = versicolor", fillcolor="#39e581"] ;
7 -> 9 ;
10 [label="petal width (cm) <= 1.75\ngini = 0.55\nsamples = 66\nvalue = [6, 50, 46]\nclass = versicolor", fillcolor="#f1fdf6"] ;
0 -> 10 [labeldistance=2.5, labelangle=-45, headlabel="False"] ;
11 [label="petal length (cm) <= 2.6\ngini = 0.24\nsamples = 36\nvalue = [6, 50, 2]\nclass = versicolor", fillcolor="#57e994"] ;
10 -> 11 ;
12 [label="gini = 0.0\nsamples = 4\nvalue = [6, 0, 0]\nclass = setosa", fillcolor="#e58139"] ;
11 -> 12 ;
13 [label="sepal width (cm) <= 2.25\ngini = 0.07\nsamples = 32\nvalue = [0, 50, 2]\nclass = versicolor", fillcolor="#41e686"] ;
11 -> 13 ;
14 [label="petal length (cm) <= 4.5\ngini = 0.38\nsamples = 2\nvalue = [0, 3, 1]\nclass = versicolor", fillcolor="#7beeab"] ;
13 -> 14 ;
15 [label="gini = 0.0\nsamples = 1\nvalue = [0, 3, 0]\nclass = versicolor", fillcolor="#39e581"] ;
14 -> 15 ;
16 [label="gini = 0.0\nsamples = 1\nvalue = [0, 0, 1]\nclass = virginica", fillcolor="#8139e5"] ;
14 -> 16 ;
17 [label="sepal width (cm) <= 2.65\ngini = 0.04\nsamples = 30\nvalue = [0, 47, 1]\nclass = versicolor", fillcolor="#3de684"] ;
13 -> 17 ;
18 [label="petal length (cm) <= 5.25\ngini = 0.14\nsamples = 10\nvalue = [0, 12, 1]\nclass = versicolor", fillcolor="#49e78c"] ;
17 -> 18 ;
19 [label="gini = 0.0\nsamples = 9\nvalue = [0, 12, 0]\nclass = versicolor", fillcolor="#39e581"] ;
18 -> 19 ;
20 [label="gini = 0.0\nsamples = 1\nvalue = [0, 0, 1]\nclass = virginica", fillcolor="#8139e5"] ;
18 -> 20 ;
21 [label="gini = 0.0\nsamples = 20\nvalue = [0, 35, 0]\nclass = versicolor", fillcolor="#39e581"] ;
17 -> 21 ;
22 [label="gini = 0.0\nsamples = 30\nvalue = [0, 0, 44]\nclass = virginica", fillcolor="#8139e5"] ;
10 -> 22 ;
}